milk -0.15167 -0.15619 -0.44806 -0.60201 0.2545 1.6187 -0.66627 -0.41164 0.9857 0.73714 0.78583 0.13991 1.3252 -0.41571 0.89105 0.40628 -0.1482 0.87993 0.025008 -1.1055 0.89081 -0.61227 1.993 0.46231 -0.41077 -0.80039 0.084518 1.1154 1.0585 0.20206 1.9146 0.46098 -0.44134 0.80671 -0.052688 -0.22943 -0.4488 1.0325 1.395 -0.16832 0.37386 -0.25902 -0.36798 -0.18462 0.97543 0.86724 -0.69399 -0.010432 0.63749 -0.47183
tea -0.44905 -0.0024527 -1.0444 0.42638 0.52453 -0.29592 -0.58751 -0.55973 0.5258 0.51151 -0.75296 -0.070205 1.108 -0.61597 -0.10542 -0.081827 -0.098814 0.4772 -0.05607 -1.2916 0.87419 0.16908 1.1681 0.045039 0.16472 -0.45808 0.092399 0.34212 -0.026885 0.52544 2.081 0.17965 -0.36365 1.2776 0.46112 -0.040696 -0.73721 0.96682 0.23409 -0.15367 0.22027 0.29598 -0.68767 0.25587 1.2896 1.2949 -1.0256 -0.86289 0.88089 -0.90278
toppings 0.64868 0.065436 -0.69444 0.21129 0.0067331 0.9843 0.10889 0.16672 -0.70547 0.17124 -0.31358 0.67313 1.2939 1.0156 -0.24211 -0.32708 -0.52784 0.0087642 0.62359 -1.4761 0.41274 -1.1143 1.0264 1.1513 -0.60463 1.0214 -0.61419 0.43645 1.1861 -0.65787 0.56165 0.86455 -0.037782 1.3123 0.4775 0.4419 -0.63051 0.8777 0.43456 0.67739 0.91387 0.69392 -0.17059 0.57933 0.24696 0.8948 0.054344 0.67585 -0.31259 0.46716
sweetness -0.043845 0.34661 -1.485 -0.20728 1.1716 0.74936 1.1973 0.047456 0.13294 1.6772 0.15882 0.42333 0.7008 -0.89286 -0.035697 0.55768 0.1776 -0.11972 0.5083 -1.086 -0.43994 0.33503 0.97048 -0.4234 0.29665 0.20776 -0.86321 1.4178 1.3118 0.15711 1.0269 0.61948 0.27682 0.30885 0.87253 -0.12874 -1.1655 0.30061 0.4154 -0.82958 0.32905 0.6227 -0.75011 -0.4323 -0.25282 0.65982 0.91641 0.5726 -0.31155 -0.042983
topping -1.0956 0.42839 0.62147 0.0673 0.12789 0.23976 -0.32421 0.1522 0.026888 0.55305 -0.43121 -0.75103 0.42363 0.50228 0.64144 -0.37067 0.14057 -0.42132 -0.24711 -0.77191 0.62211 -0.40198 1.3652 0.014177 -0.34703 0.7289 -0.52736 0.31359 0.19145 0.59801 1.6867 0.33836 0.60136 1.4984 -0.20246 -0.59117 -0.62526 0.58575 0.47675 -1.1129 0.29332 0.094981 0.051911 -0.75513 -0.51983 0.72255 0.10873 0.23544 -0.5287 -0.203
strawberry -0.14643 0.70293 -1.2097 1.0417 0.3093 0.6464 -1.3798 0.6059 0.041217 1.0823 -0.05217 0.21955 0.9005 0.21745 0.95127 -0.020037 -0.35136 0.47722 0.25138 -0.57967 -0.42841 -0.2611 0.45012 -0.11463 -0.33793 -0.12501 0.48683 1.3193 1.2672 -1.1419 0.96611 -0.6229 -0.72498 0.4925 0.57839 -0.064388 -0.45671 0.01358 1.3574 -0.12537 -1.1469 -0.024781 -1.1212 -0.13477 0.27845 0.13102 -0.014345 -0.091154 -0.54015 -0.10812
ice -0.68163 1.1578 -0.47827 0.41421 -0.53186 0.63827 -0.90381 0.50795 0.057398 -0.29163 1.1411 -0.079702 0.19951 1.1925 0.52281 0.78633 0.78555 0.32624 -1.5504 -1.0191 0.35532 -0.38875 0.92789 0.24325 -0.43162 -0.54939 -0.52209 1.0721 0.99558 -0.38605 2.2673 0.41067 -0.08973 0.29741 -0.18678 0.44329 -0.42243 0.80558 1.1306 0.14038 -0.089723 0.1341 0.47948 -0.12774 0.024234 0.051782 0.44778 -0.47974 -0.62491 -0.90005
cream -0.35043 0.68273 -0.97657 0.087962 0.29977 1.4481 -0.67349 0.015549 -0.36688 0.54944 0.29208 -0.22711 0.91004 0.45417 -0.1278 0.38507 -0.75348 0.40945 0.09833 -1.5969 0.52216 -0.23417 1.3237 0.59495 -1.5134 -0.13448 -0.71385 1.5732 1.5877 -0.48312 1.8475 0.44274 -0.6704 1.2715 0.24931 -0.15207 -0.71434 0.92051 1.4649 -0.38999 0.93067 0.34684 -0.71134 -0.21604 0.79144 0.68646 -0.042086 -0.56812 -0.056636 0.0082128
vanilla -0.32934 0.40539 -0.40185 0.74612 0.51669 1.1118 -0.22081 0.17886 -0.33832 1.3485 0.68058 0.21251 1.1364 0.31457 -0.17303 0.12289 0.13689 0.38971 -0.01794 -1.1175 0.14654 -0.3226 1.7585 0.2306 -0.81335 0.56118 -0.12962 0.94446 1.9098 -0.11732 1.2301 -0.28942 -1.3114 1.2003 -0.044858 -0.41453 -1.6438 0.33327 1.0593 -1.0497 1.2178 -0.40029 -0.48464 -0.71748 0.32612 0.72842 0.41264 -0.032452 -0.25718 -0.53324
sandwiches 0.78846 -0.46569 -0.92697 -0.60578 0.73276 0.1059 -0.59127 -0.17677 -0.27056 -0.017025 -0.86517 0.36166 1.1431 0.98236 -0.14089 -0.52425 -0.79364 0.70301 0.037253 -0.48125 0.87621 -0.7354 0.70699 1.0704 -0.31907 -0.27403 -0.018381 0.73222 0.97709 -0.94889 1.0917 1.0363 -0.14117 2.5698 0.28529 0.384 -0.3696 1.2938 0.41539 0.33402 0.71961 0.20704 -0.081859 0.28653 1.2716 1.4084 -0.17313 0.21541 0.14007 0.33245
vehicle 0.76635 -0.4642 1.5398 -0.072722 0.25468 0.47589 -0.68325 -0.69972 0.98951 -0.52045 0.65583 -0.68863 -0.69973 0.23702 -0.178 0.090046 -0.42554 1.3735 -0.63329 -1.5985 0.44457 0.096731 -1.0718 0.070542 0.16615 -1.2411 -0.19775 0.60335 1.1504 0.26983 2.4684 -0.13064 -0.4938 -0.32927 1.1078 0.52485 0.67595 -0.46873 -0.47992 0.43717 -0.1786 -0.10588 0.41584 -0.85348 -0.045738 -1.1811 0.16451 -0.022746 1.04 -0.02507
repair 1.5719 0.04748 0.73476 0.093509 -0.77311 1.0517 -0.58655 0.67349 0.71266 -0.79015 0.27461 0.21168 -0.56267 0.30452 -0.17259 0.69281 -1.0549 0.37406 0.98926 -0.20694 0.45507 -0.18335 -1.2296 -0.87648 0.25401 -0.50182 -0.0080555 -0.12327 1.2217 -0.39597 2.7218 0.12711 -0.019001 0.015113 0.034378 1.5785 0.99619 0.69863 1.0711 0.15046 -0.25779 -0.95861 0.25768 0.036945 0.20438 0.2914 0.15679 0.20358 -0.29825 0.15258
car 0.47685 -0.084552 1.4641 0.047017 0.14686 0.5082 -1.2228 -0.22607 0.19306 -0.29756 0.20599 -0.71284 -1.6288 0.17096 0.74797 -0.061943 -0.65766 1.3786 -0.68043 -1.7551 0.58319 0.25157 -1.2114 0.81343 0.094825 -1.6819 -0.64498 0.6322 1.1211 0.16112 2.5379 0.24852 -0.26816 0.32818 1.2916 0.23548 0.61465 -0.1344 -0.13237 0.27398 -0.11821 0.1354 0.074306 -0.61951 0.45472 -0.30318 -0.21883 -0.56054 1.1177 -0.36595
quote -0.48575 0.8163 0.34727 -0.12187 0.69203 -0.67207 0.23301 -0.24022 -1.1846 -0.10408 -1.06 0.31746 0.0089788 -0.59773 0.89555 0.0025537 -0.87156 -1.0892 0.40827 -0.2015 0.26223 -0.20416 -0.091972 0.06469 0.93453 -1.01 -1.6442 0.066042 -0.077599 -0.055517 1.173 -0.68569 0.072663 0.59691 0.16434 -0.36809 0.58998 -0.46025 -0.1862 -0.14364 1.3357 0.60657 -0.078699 -0.16142 0.62249 0.3235 0.64201 1.3312 0.68248 0.41399
cars 0.51724 -0.26031 1.7203 -0.47484 -0.57787 0.16375 -1.4448 -0.85441 -0.28838 -0.2202 0.2977 -0.62934 -0.97335 -0.28439 0.93359 0.016909 -0.41153 1.6066 -0.3413 -2.7262 0.75217 -0.33267 -0.84953 0.67237 0.0052213 -0.68454 -0.50516 0.64063 1.2926 -0.074289 2.5438 0.72682 0.022884 0.1408 1.1335 0.42737 0.56392 0.025196 -0.81137 0.69468 -0.2126 -0.3785 0.83051 -0.52962 0.27608 -0.10377 -0.62393 -0.59529 0.476 -0.86396
wash 0.21473 -0.12386 -0.060734 -0.48248 -0.81974 -0.01071 -0.1787 0.22899 0.46298 -0.47632 -0.71289 0.40994 0.83801 -0.19857 -0.3936 0.46907 -0.018075 0.25584 0.24752 -1.1802 0.17802 0.1188 0.99759 -0.052702 0.082076 -0.70217 -0.28571 1.1461 1.2257 -1.1676 1.2518 0.30352 -0.6073 0.11593 0.03638 0.67858 -0.13848 0.12003 1.7829 0.082811 0.058374 0.22966 0.40507 0.10633 0.27575 0.88687 0.37886 -1.0186 0.2757 0.035919
sales -0.10402 -0.72575 1.0767 0.25689 0.067883 0.13208 -1.3969 -1.5395 0.92602 0.84846 0.41672 -0.42337 -0.62244 -0.77882 1.1413 0.31889 -1.2934 -0.32042 -0.22634 -1.1089 1.4503 -1.0217 -0.43681 -0.3789 -1.0921 -0.81777 -0.77469 -0.03369 0.70634 0.42606 3.3199 0.72523 0.98636 0.66193 0.27779 -0.96095 -0.45733 0.45527 0.11244 -0.72487 -0.36301 0.12385 0.28431 -0.49478 0.20896 -0.23671 -0.13081 0.45792 0.17941 0.809
companies 0.51809 -1.1148 0.80542 0.74613 -0.51765 0.022329 -1.1665 -0.38518 0.25655 0.36769 0.3582 0.70135 -0.28008 -0.12265 -0.14963 0.14381 -0.1422 0.16931 0.36557 -1.511 1.7301 -0.6053 -0.16457 -0.16064 -0.91074 -1.3738 -0.61214 -0.93307 -0.0039919 -0.30649 3.776 0.43728 0.65859 0.022101 0.043874 -0.846 -0.99271 0.20027 0.14687 -0.39595 -0.25364 -0.54625 1.224 0.72737 0.18714 -0.17607 -1.1303 0.67082 -0.16598 0.32113
replace 0.34649 -0.2277 0.95517 -0.19704 -0.039406 0.26408 -0.8773 -0.25196 -0.64067 -0.61438 0.48659 0.91352 -0.52368 0.6393 0.24356 0.84017 0.067215 0.19554 0.41829 -0.67482 -0.51519 -0.48213 -0.25595 -0.5345 -0.29305 -1.3452 0.77232 -0.10062 -0.10271 0.51153 2.1996 -0.17807 -0.89426 0.038588 0.61121 0.39974 0.75597 0.69954 -0.1689 -0.40497 -0.18124 0.54605 -0.25584 -0.21758 -0.11518 0.61926 -0.84268 -0.21944 -0.33059 0.3292
quoted -0.059622 0.21106 0.34859 0.50607 0.61879 -1.1982 -0.26602 -0.0012554 -0.56036 -0.83789 0.29061 0.0014574 -0.12434 -0.14218 0.6582 0.10754 -0.87546 0.031617 0.27233 0.65864 0.22895 0.89925 0.6832 -0.31604 0.82358 -1.8632 -0.13891 0.53766 -1.173 0.70694 2.3109 -0.93291 0.28856 0.1243 -0.76809 -0.62077 0.44489 -0.21393 0.091523 0.77258 0.73822 0.85585 0.23433 -0.71498 0.46805 -0.42592 -1.361 1.6001 0.91039 0.31128
nails -0.40682 -0.3171 0.61067 -0.82264 0.053167 1.1738 0.16779 -0.29881 -0.13868 0.22073 -0.44638 -0.39494 -0.94911 0.61268 -0.19167 0.48862 0.42124 0.44458 0.38389 -1.2787 0.31972 0.30135 0.88974 -0.57199 -0.085677 -0.17118 -0.60414 1.4516 0.55906 -1.4133 1.1234 -0.36528 0.16952 0.77392 0.090565 1.0704 0.81265 0.27379 0.76521 -0.25369 0.37278 -0.46548 -0.54947 0.1425 1.3725 -0.12571 0.38071 -0.16221 -0.18536 -0.92739
salon 0.020158 1.0056 -1.2988 -0.44179 -0.28089 -0.5429 -0.82358 -0.34482 -0.39148 0.068895 -0.11443 -0.43412 -0.35359 0.040005 0.39202 -0.39899 -0.85241 0.48626 0.31154 -0.88115 1.6468 0.59159 -0.4808 0.61232 -0.7097 0.046912 -1.5096 0.46681 -0.27587 -0.06042 0.71651 -0.016795 -0.13284 -0.16434 -0.52081 -0.16045 0.0064298 1.4161 0.92815 -0.08388 0.79811 -0.60722 -0.016309 0.4521 0.29216 -0.76174 -0.2439 -1.1809 0.87889 0.41813
nail -0.30425 -0.29012 0.16253 -0.13717 0.23589 0.71993 0.11345 0.1289 -0.082703 -0.1454 -0.38459 -0.78233 -0.94347 1.0187 -0.35834 0.37613 0.062909 -0.31672 0.18058 -0.78455 0.096841 -0.029955 0.27797 -0.26319 -0.96486 -0.6914 -1.1634 0.80962 0.90975 -1.2565 0.99961 -0.14178 -0.81063 0.68143 -0.19369 0.71739 0.37668 0.70604 0.91802 -0.49512 0.37774 -0.535 -0.14297 0.14023 1.5152 -0.087005 0.6079 -0.11892 0.27753 -0.46927
massage 0.45145 0.31307 -1.5711 0.19857 -0.52456 0.40458 0.32698 0.13716 0.69009 0.97232 0.48445 -0.28803 0.84134 0.88631 -0.15398 0.4277 -1.042 0.68865 0.3328 -0.5965 0.34365 1.7987 -0.41612 0.46785 -0.43385 -0.11239 0.23274 0.11336 -0.31266 -0.30698 1.6328 0.85181 -0.25691 1.0902 -0.28444 0.61192 0.44022 0.88355 1.5319 0.21633 0.81896 0.44915 -0.10546 2.2411 0.79693 -0.47636 0.48335 -0.39266 -0.28088 0.059961
hair -0.46486 0.52234 -1.0016 -0.44925 0.54282 1.3671 -0.07326 -1.1978 0.067884 0.45017 0.64898 -0.037358 -0.072492 0.13806 0.38141 0.9302 -0.47058 0.2033 0.30471 -1.2808 -0.77774 0.9289 0.97424 -0.47707 -0.61208 -0.94539 -0.73364 1.9606 0.44711 -0.92328 2.1454 0.25778 -0.045477 0.07284 0.25292 0.82683 -0.35352 0.74428 0.84985 -1.0845 -0.098396 0.63681 -0.4097 0.3788 1.048 -1.2255 0.98978 -1.149 -0.033822 -0.67167
spa 2.0045 0.79016 -0.88274 1.7506 -0.66025 -0.64986 -0.067999 0.13884 -0.028138 0.17318 0.16942 -0.53688 0.053194 -0.21971 0.1918 0.047237 -0.88969 0.6548 0.12378 -0.57095 -0.12111 0.27511 -1.1342 0.81973 -0.95081 0.31896 0.16195 -0.022947 -0.86256 0.76355 1.9023 0.015465 -0.39186 1.5931 -0.065608 -0.44113 -0.25852 0.96216 1.491 -0.47366 1.3065 -0.093437 0.66969 0.491 0.25053 0.53462 -0.54483 -0.77688 0.68203 0.21648
doctor 0.66999 0.11698 -0.46322 -0.90012 0.5656 0.4898 -0.26031 0.71268 0.62338 0.02785 0.68012 0.76745 -0.020365 0.52097 0.80622 -0.20537 -0.88263 0.25707 -0.18035 0.80969 -0.24148 1.1617 0.30834 0.65495 0.32863 -2.2849 -0.69219 -0.71241 -0.50242 -0.076541 1.8624 -0.20323 -0.64749 -0.51617 0.50273 0.78918 0.62624 0.37496 1.2855 -0.20581 0.4103 0.71996 -0.16293 0.29106 0.47188 -0.15121 0.36688 -0.089993 0.37778 0.59818
doctors 1.2739 -0.52943 0.040415 -1.2706 -0.52321 0.53762 -0.53808 0.89865 0.6744 0.008586 0.72167 -0.22372 0.43241 0.2759 0.30909 0.34631 -0.84492 -0.33327 0.42817 -0.2466 -0.38343 1.1355 0.51477 0.3395 -0.096846 -1.7952 -0.56236 -0.71598 -0.87921 -0.34492 2.7828 0.8285 -0.21441 -0.59616 0.20925 0.13111 0.90182 0.52042 1.388 0.14259 -0.28764 0.24685 0.63509 1.3826 1.1215 -0.28251 -0.42801 0.68055 -0.46315 0.35113
patients 2.0078 -0.26529 0.51716 -1.3638 -0.59361 1.3103 0.35154 0.36747 1.0833 0.46394 0.54957 -0.57597 0.99163 -0.34096 0.2894 0.34816 -1.1957 -0.18683 0.47475 -0.09207 -0.82199 0.8152 0.8678 0.383 -0.045296 -1.1335 -0.17677 -0.81097 -0.44636 -0.11504 3.0354 1.0389 0.36207 -1.0496 0.31771 -0.0080843 1.128 0.69216 1.2503 -0.34802 -0.36812 -0.087655 0.891 1.6135 1.1123 0.064042 -0.38817 -0.01825 -0.31884 1.0168
appointments 0.21991 0.2282 -0.80478 -0.50263 -0.11533 -0.14346 0.026043 0.50373 -0.27466 -0.91415 -0.77014 0.30093 0.1795 0.64157 0.18766 0.078266 -1.1904 -0.70107 0.86937 -0.61575 0.68336 -0.010951 -0.046178 -0.26817 -0.84648 -0.90083 -0.13404 -0.43058 -1.0333 0.61624 1.5061 0.98838 -0.47471 -0.76114 0.59292 0.69416 0.38305 0.86266 -0.31689 -0.21624 -0.47576 0.49513 -0.63638 1.4663 -0.75621 -0.18899 -0.051436 0.86222 -0.22091 0.30386
sushi -0.22004 0.017557 -1.0646 -0.28902 0.71121 -0.85485 -0.023891 0.13349 0.29944 0.65593 -0.29506 0.64587 1.3098 1.8295 0.30729 0.13112 -0.039243 1.1398 0.11321 -0.265 1.6359 -0.86122 0.56421 0.96962 -0.11236 -0.67992 -0.87114 0.62738 0.69167 -0.62426 0.38536 0.36876 0.31532 1.4028 0.47364 0.24859 -0.12852 1.0153 0.2864 0.46458 -0.53099 0.20494 0.40516 0.048185 1.3134 0.39347 -0.23952 -0.38243 0.77849 0.64369
rib 0.4866 0.22557 -1.0878 -0.19654 -0.12162 1.2251 0.7292 0.89854 0.47722 -0.82617 -0.33979 0.14726 -0.46395 0.98463 0.27424 0.68461 -0.1893 -0.32609 -0.020307 0.81993 -0.91479 -0.36524 0.45303 -0.010766 -0.53605 -0.40097 0.4496 1.3764 0.40586 -0.065822 1.6265 0.27032 1.1053 2.0126 -0.14668 1.5767 1.0089 0.6606 1.3976 -0.30368 -0.29628 0.25595 -0.74058 0.81663 0.8924 0.42262 0.42622 -0.094663 -0.34787 -0.20877
crab 0.40357 -0.27031 -1.1683 0.51588 0.56237 0.46246 -0.55118 0.29995 0.22224 -0.36717 -0.51487 0.82542 2.3783 1.1478 -0.24926 0.17001 0.60107 0.6659 -0.86278 -0.09446 0.088295 -1.2673 1.0595 -0.25498 0.16728 -0.09788 -0.4863 0.60546 0.83714 -0.69085 1.1381 -0.53872 -0.11226 1.9533 0.16221 0.40539 -0.73811 0.092407 0.81232 -0.51019 -0.97748 0.11872 -0.55353 0.51991 0.54559 0.2596 0.028837 -0.63359 0.16263 -0.081279
lobster 0.61773 -0.43119 -1.7101 -0.24169 0.443 0.35248 -0.41761 0.161 0.18929 -0.69022 -0.73614 0.8332 2.0846 1.4113 0.14363 -0.50442 0.48728 0.53791 -0.95008 -0.84122 0.56238 -0.92257 0.65636 -0.074274 -0.071654 -0.17662 -0.59633 0.63706 0.39763 -0.62343 0.83562 0.19004 -0.37679 2.1584 0.17956 0.18838 -0.58464 0.22605 0.90682 -0.31665 -0.58452 0.18108 0.48797 0.4271 0.63711 0.38099 0.020507 -0.26716 0.26497 0.34168
bone 0.58993 0.024354 -0.21234 -0.14964 0.45669 1.7025 0.41119 0.081984 1.3004 0.10015 0.59465 -0.15154 0.12163 0.13934 -0.067985 0.88715 0.099132 -0.89837 0.11708 0.61003 -0.96045 -0.62758 0.62534 -0.7321 -0.1465 -0.42602 -0.52494 0.40416 0.22937 -0.95464 2.5504 -0.75146 0.99207 0.49036 -0.31481 0.99963 0.92183 0.7078 1.3364 -0.50309 -0.12885 -0.29798 -0.81246 0.53646 1.6157 -0.080678 0.93502 -0.46979 -0.88906 -0.25908
chefs 0.049749 0.18835 -0.9606 -0.35862 -0.035709 -0.83456 -1.0289 0.34145 -0.40421 0.32925 -0.11894 0.37134 0.76184 1.374 0.40608 -0.63728 0.81706 0.5282 -0.14669 -1.2734 0.72825 0.34917 0.39532 1.3329 -0.37249 -0.061812 -1.3554 -0.81662 -0.34592 -0.02778 0.80015 0.9925 -0.2626 0.12955 0.48175 0.43161 -1.1165 1.174 0.41874 0.060422 0.33917 0.85646 0.66026 0.35215 0.87541 0.37261 -0.32159 -0.091249 -0.2156 0.5749
reservations 0.92262 0.73717 -0.30942 0.21195 -0.23593 -0.088507 -0.9474 0.2721 0.096323 -0.44672 -0.75004 0.12159 0.89239 -0.11635 0.13369 0.31737 -0.67901 -0.51695 0.51053 -0.62473 0.50148 0.28689 -0.31739 0.48827 0.12862 -0.56822 0.21048 0.21894 0.44301 0.010891 1.6551 0.83811 -0.58017 0.091302 0.25633 -0.65696 0.084205 -0.68509 -0.71496 0.62468 0.24183 0.10442 0.26483 1.0959 -0.77567 0.22809 -0.59141 1.2675 -0.077643 0.14883
dishes 0.62555 0.03114 -1.2686 0.31189 0.19186 -0.13435 -0.48726 -0.23213 -0.24335 0.18808 -0.34055 0.2685 2.2308 1.4429 0.019971 0.056863 -0.28002 0.41278 0.24771 -0.76249 0.59667 -0.097083 0.98084 0.7731 0.27708 -0.1027 -0.72578 0.42288 0.68645 -0.61044 2.0764 0.46666 -0.24305 1.1821 0.40334 1.1392 -0.41963 1.7532 -0.081427 0.34999 0.54258 1.0804 0.3822 0.46701 1.0698 1.2794 -0.060596 -0.075931 -0.066224 0.098227
seafood 0.1808 -0.6865 -1.6007 0.62266 0.18391 -0.38339 -0.87648 -0.33756 1.4375 0.2773 -0.49771 0.46384 2.04 0.53321 0.41213 -0.0016703 0.35364 0.51979 -0.07507 -0.73854 1.0848 -0.65617 0.4603 0.33104 -0.21701 -0.21771 -0.17795 0.62973 0.6904 -0.19432 1.4509 0.084894 0.65233 1.2714 0.51329 0.2468 -0.57269 0.97239 0.63352 0.28107 -0.27885 0.73214 0.73482 0.13891 1.0678 1.2536 -0.72269 0.26621 0.54942 0.80503
appetizer 0.698 0.20354 -1.2623 0.3469 1.2599 0.26933 0.52348 0.3617 -0.09213 0.078824 -1.036 0.24204 1.7221 1.348 0.021116 -0.84079 -0.67261 0.27185 -0.22992 -0.22401 0.54339 -1.3047 0.68308 0.70612 0.083189 0.23393 -0.26121 0.22669 0.69037 -0.17506 0.58343 0.086596 -0.38013 1.9715 0.7479 -0.20382 -0.1476 1.6769 0.20154 -0.20484 0.31748 -0.0939 -0.14372 0.70653 -0.30676 0.61282 0.70044 0.30434 0.83277 1.293
tickets 0.21425 0.73982 0.56269 0.067872 -0.031728 -0.96087 -1.4488 0.15738 0.06238 0.39807 -0.50462 -0.17692 0.90181 -0.28182 2.0618 -0.11013 -0.51479 0.31932 -0.92149 -1.4556 1.3436 -0.56653 -0.20452 0.77178 -0.71809 -0.72606 0.11066 0.068662 0.45667 -1.0454 1.8991 1.8262 -0.086046 0.30921 0.18168 0.0057603 1.0186 0.30144 -0.56691 -0.22143 0.48769 0.22979 0.13198 1.2799 -1.1238 -0.40631 -0.86059 0.40702 -0.16507 0.10279
rooms 1.2403 0.96952 0.021503 -0.45307 0.25857 -1.0916 -0.34521 -0.72187 -0.082499 -0.16297 -1.0472 -0.52606 0.49662 0.80106 0.46464 0.23231 -0.79692 0.53058 0.26397 -1.1297 0.9986 0.91609 -0.28157 0.41698 -0.83145 0.29231 0.014983 0.46353 0.047411 -0.046637 2.9319 0.3149 0.40195 -0.49527 0.6182 1.3054 1.1862 0.71165 0.26674 0.011888 0.14112 -0.18088 0.57372 1.9399 -0.16918 0.75499 -0.3572 -1.3161 -0.10095 -0.073294
hotel 1.6098 1.0294 -0.50544 0.40047 0.38814 -1.5778 -1.2993 0.1155 -0.30262 -0.28827 -0.96581 -0.28284 -0.14596 0.17527 0.44815 0.44039 -0.34833 0.69749 -0.62053 -0.38235 1.3279 1.0659 -1.4544 0.50287 -1.0801 -0.86631 -0.47235 0.83618 -0.061528 -0.35008 2.0078 0.038165 0.13002 0.35539 0.89369 0.0097642 0.48953 -0.30987 0.35756 0.0028215 -0.19241 0.1665 0.60639 0.25088 -0.12004 -0.0096763 -1.1168 -1.2892 0.70028 0.15204
pool 0.012317 1.1423 0.10384 0.66172 -0.065728 -0.21736 -0.042115 0.40021 0.54107 -0.51544 -0.25189 -0.34801 0.34358 0.45193 0.24554 0.36356 0.9688 0.45424 -0.8341 -1.1122 0.30215 0.022876 -0.15185 0.49034 -0.29654 -0.27521 0.43078 0.318 -0.22256 0.17087 2.572 0.43211 0.14052 -0.22186 -0.27549 0.79703 0.25446 0.5761 0.65092 -1.2612 0.31115 -0.53853 0.44011 0.94125 0.17634 -0.1812 -0.020391 -1.096 0.60417 -0.31148
show -0.034772 0.64145 -0.37352 0.20804 0.20488 0.10238 -0.90995 -0.57641 0.01479 0.45589 -0.15513 -0.18886 -0.44949 0.39482 1.1552 0.15602 -0.071006 0.056749 -0.66921 -0.43072 0.78598 0.67878 0.54741 0.23433 0.18783 -1.1221 -1.3257 0.45237 0.069194 -0.47916 3.0153 0.8077 0.097056 -1.065 -0.49647 0.051322 0.38649 -0.25782 -0.76952 -0.70461 -0.15052 0.36085 -0.97656 -0.58116 0.081565 -0.41565 -0.16104 -0.23396 -0.28784 0.98359
stayed -0.0062332 -0.041359 0.34178 -0.80389 0.53815 -0.76678 -1.2735 1.0041 -0.82519 -0.34664 0.15048 -0.36375 -0.53862 -0.080222 0.50465 0.23443 -0.37335 -0.30158 -0.41444 -0.21446 0.031763 0.561 0.33039 0.38651 0.18572 -0.95278 0.42411 0.2519 0.19142 0.23486 2.0939 0.42738 0.40601 -0.11714 0.34868 -0.21437 0.12882 0.74229 -0.083433 -0.47266 -0.52436 -0.2679 0.015555 0.13676 -0.22305 -0.079128 -0.5726 -1.1298 -0.14796 -0.09406
casino 0.90883 -0.26446 -0.32047 1.84 -0.66597 -0.8806 -0.95351 -0.066084 -0.24196 0.85947 -0.77434 0.040351 0.40221 0.071955 0.18168 0.62834 0.65343 0.81363 -1.0395 -0.50949 1.26 -0.14187 -1.4227 0.21663 -1.0176 -0.99633 -0.51684 -0.050727 -0.17729 -0.65928 1.4105 -0.050659 -0.51908 0.70027 0.24157 -0.84945 -0.42134 -0.73158 0.15835 -0.44163 -0.53813 0.42701 -0.24101 1.3766 -1.2003 -0.63186 -0.77797 -1.1249 0.44576 0.042108
security 0.52125 -0.0033878 0.81485 0.049424 0.50668 -0.95911 0.31231 -0.45548 0.52073 -1.5376 -0.44826 -0.36463 -0.80871 0.25262 -0.16081 0.5605 -0.01623 -0.23822 0.83667 -0.031576 0.45841 0.70073 -0.44999 -0.563 -0.63356 -2.0531 0.55847 0.040415 0.15785 0.53227 3.4865 0.24928 -0.91953 -1.1876 -0.18295 0.76939 0.29916 -0.72577 -0.65898 0.39304 -0.3436 0.36399 0.85622 -0.3089 0.21141 -0.32681 -0.56317 1.2145 0.18532 0.06321
shows 0.079654 0.78386 -0.13076 0.15505 0.20137 0.29517 -0.7638 -0.78499 0.20597 0.2997 -0.23401 -0.39232 -0.15761 0.43687 0.86791 -0.098061 -0.29782 -0.19469 -0.54432 -0.27898 0.65206 0.31559 0.67627 0.46314 0.12583 -0.83649 -1.398 0.28385 0.24323 -0.1781 2.8787 0.43399 0.27244 -1.1603 -0.29066 0.1242 0.18668 -0.21057 -0.86041 -0.49999 -0.19055 0.21498 -0.54196 -0.3615 0.075854 -0.24653 0.21675 -0.1175 -0.098727 0.57669
ticket -0.40007 0.54228 1.2943 0.24584 0.0091042 -0.37552 -1.1136 -0.13531 0.25375 0.089252 -0.62938 -0.43037 0.4057 0.23861 0.73626 -0.073621 -0.46046 0.15861 -0.24646 -1.1533 1.0917 -1.1991 -0.57642 0.42901 -0.29652 -1.4007 0.052753 0.18739 0.49966 0.1311 1.8292 1.3589 -0.38009 0.31207 -0.138 -0.40382 0.60802 0.56785 -0.68488 -0.43886 0.26717 0.39139 -0.77823 0.76891 -1.1194 -0.54888 -1.107 0.11306 1.0452 0.41786
